FANN_FLO_2.1
num_layers=4
learning_rate=0.700000
connection_rate=1.000000
network_type=0
learning_momentum=0.000000
training_algorithm=2
train_error_function=0
train_stop_function=0
cascade_output_change_fraction=0.010000
quickprop_decay=-0.000100
quickprop_mu=1.750000
rprop_increase_factor=1.200000
rprop_decrease_factor=0.500000
rprop_delta_min=0.000000
rprop_delta_max=50.000000
rprop_delta_zero=0.100000
cascade_output_stagnation_epochs=12
cascade_candidate_change_fraction=0.010000
cascade_candidate_stagnation_epochs=12
cascade_max_out_epochs=150
cascade_min_out_epochs=50
cascade_max_cand_epochs=150
cascade_min_cand_epochs=50
cascade_num_candidate_groups=2
bit_fail_limit=3.49999994039535520000e-001
cascade_candidate_limit=1.00000000000000000000e+003
cascade_weight_multiplier=4.00000005960464480000e-001
cascade_activation_functions_count=10
cascade_activation_functions=3 5 7 8 10 11 14 15 16 17 
cascade_activation_steepnesses_count=4
cascade_activation_steepnesses=2.50000000000000000000e-001 5.00000000000000000000e-001 7.50000000000000000000e-001 1.00000000000000000000e+000 
layer_sizes=2 6 6 2 
scale_included=0
neurons (num_inputs, activation_function, activation_steepness)=(0, 0, 0.00000000000000000000e+000) (0, 0, 0.00000000000000000000e+000) (2, 7, 5.00000000000000000000e-001) (2, 7, 5.00000000000000000000e-001) (2, 7, 5.00000000000000000000e-001) (2, 7, 5.00000000000000000000e-001) (2, 7, 5.00000000000000000000e-001) (0, 7, 5.00000000000000000000e-001) (6, 7, 5.00000000000000000000e-001) (6, 7, 5.00000000000000000000e-001) (6, 7, 5.00000000000000000000e-001) (6, 7, 5.00000000000000000000e-001) (6, 7, 5.00000000000000000000e-001) (0, 7, 5.00000000000000000000e-001) (6, 11, 5.00000000000000000000e-001) (0, 11, 5.00000000000000000000e-001) 
connections (connected_to_neuron, weight)=(0, -2.42224044799804690000e+001) (1, 3.90293622016906740000e+000) (0, -3.69780755043029790000e+000) (1, 6.12588357925415040000e+000) (0, 5.43134574890136720000e+001) (1, -8.93096446990966800000e+000) (0, 1.50000000000000000000e+003) (1, 2.56940078735351560000e+000) (0, 7.52644300460815430000e+000) (1, -5.57409381866455080000e+000) (2, 5.34236431121826170000e-001) (3, 1.41249675750732420000e+001) (4, 5.67727041244506840000e+000) (5, 6.36475849151611330000e+000) (6, 2.30549125671386720000e+001) (7, 6.56558349728584290000e-002) (2, -8.01759541034698490000e-001) (3, 3.97969970703125000000e+001) (4, -9.77103137969970700000e+000) (5, -4.69398689270019530000e+000) (6, -2.11796054840087890000e+001) (7, -1.26209273934364320000e-001) (2, -1.53677415847778320000e+000) (3, 1.12842569351196290000e+001) (4, -1.08702945709228520000e+001) (5, 1.31252419948577880000e+000) (6, -1.62441215515136720000e+001) (7, 3.25131773948669430000e+000) (2, -3.07850456237792970000e+000) (3, 7.08448648452758790000e+000) (4, -1.33759880065917970000e+000) (5, 2.33828525543212890000e+001) (6, -4.48774147033691410000e+000) (7, 3.65812683105468750000e+000) (2, 1.27733192443847660000e+001) (3, 1.56016235351562500000e+001) (4, -3.15966835021972660000e+001) (5, -2.07070312500000000000e+001) (6, -1.50468578338623050000e+001) (7, 1.81338238716125490000e+000) (8, -1.30828876495361330000e+001) (9, 1.93115978240966800000e+001) (10, 4.85281801223754880000e+000) (11, 6.85568141937255860000e+000) (12, 9.42045629024505620000e-001) (13, -6.23043727874755860000e+000) 
